<?xml version="1.0"?>
<opencv_storage>
<cascade>
  <stageType>BOOST</stageType>
  <featureType>HAAR</featureType>
  <height>24</height>
  <width>24</width>
  <stageParams>
    <boostType>GAB</boostType>
    <minHitRate>9.9500000476837158e-01</minHitRate>
    <maxFalseAlarm>5.0000000000000000e-01</maxFalseAlarm>
    <weightTrimRate>9.4999999999999996e-01</weightTrimRate>
    <maxDepth>1</maxDepth>
    <maxWeakCount>100</maxWeakCount></stageParams>
  <featureParams>
    <maxCatCount>0</maxCatCount>
    <featSize>1</featSize>
    <mode>BASIC</mode></featureParams>
  <stageNum>20</stageNum>
  <stages>
    <!-- stage 0 -->
    <_>
      <maxWeakCount>2</maxWeakCount>
      <stageThreshold>-6.9901674985885620e-01</stageThreshold>
      <weakClassifiers>
        <_>
          <internalNodes>
            0 -1 30 -1.9633736461400986e-02</internalNodes>
          <leafValues>
            -9.7674417495727539e-01 5.0505048036575317e-01</leafValues></_>
        <_>
          <internalNodes>
            0 -1 116 -1.3579873368144035e-02</internalNodes>
          <leafValues>
            -9.5233345031738281e-01 2.7772742509841919e-01</leafValues></_></weakClassifiers></_>
    <!-- stage 1 -->
    <_>
      <maxWeakCount>3</maxWeakCount>
      <stageThreshold>-8.7867563962936401e-01</stageThreshold>
      <weakClassifiers>
        <_>
          <internalNodes>
            0 -1 89 -5.4304271936416626e-02</internalNodes>
          <leafValues>
            3.8650307059288025e-01 -7.3378837108612061e-01</leafValues></_>
        <_>
          <internalNodes>
            0 -1 15 3.7125542759895325e-02</internalNodes>
          <leafValues>
            -6.1066889762878418e-01 6.3486802577972412e-01</leafValues></_>
        <_>
          <internalNodes>
            0 -1 11 4.0820464491844177e-02</internalNodes>
          <leafValues>
            -6.5450978279113770e-01 5.8822941780090332e-01</leafValues></_></weakClassifiers></_>
    <!-- stage 2 -->
    <_>
      <maxWeakCount>5</maxWeakCount>
      <stageThreshold>-1.1914609670639038e+00</stageThreshold>
      <weakClassifiers>
        <_>
          <internalNodes>
            0 -1 102 -3.3123850822448730e-02</internalNodes>
          <leafValues>
            3.2352942228317261e-01 -6.1250001192092896e-01</leafValues></_>
        <_>
          <internalNodes>
            0 -1 13 2.9752887785434723e-03</internalNodes>
          <leafValues>
            -6.6063362360000610e-01 3.9379048347473145e-01</leafValues></_>
        <_>
          <internalNodes>
            0 -1 64 1.5598810277879238e-03</internalNodes>
          <leafValues>
            -7.4847090244293213e-01 3.3779847621917725e-01</leafValues></_>
        <_>
          <internalNodes>
            0 -1 44 -4.5994338579475880e-03</internalNodes>
          <leafValues>
            -8.8372737169265747e-01 3.1652668118476868e-01</leafValues></_>
        <_>
          <internalNodes>
            0 -1 78 -5.0041817128658295e-02</internalNodes>
          <leafValues>
            3.6009669303894043e-01 -5.4080724716186523e-01</leafValues></_></weakClassifiers></_>
    <!-- stage 3 -->
    <_>
      <maxWeakCount>5</maxWeakCount>
      <stageThreshold>-1.0198140144348145e+00</stageThreshold>
      <weakClassifiers>
        <_>
          <internalNodes>
            0 -1 50 -1.1034100502729416e-01</internalNodes>
          <leafValues>
            3.8022813387215137e-03 -7.9274612665176392e-01</leafValues></_>
        <_>
          <internalNodes>
            0 -1 95 4.2994483374059200e-04</internalNodes>
          <leafValues>
            1.8179520964622498e-01 -8.4319478273391724e-01</leafValues></_>
        <_>
          <internalNodes>
            0 -1 2 -3.1557105830870569e-04</internalNodes>
          <leafValues>
            -8.1028747558593750e-01 2.5235766172409058e-01</leafValues></_>
        <_>
          <internalNodes>
            0 -1 136 -1.4085625298321247e-04</internalNodes>
          <leafValues>
            -7.8913581371307373e-01 2.0609094202518463e-01</leafValues></_>
        <_>
          <internalNodes>
            0 -1 60 4.6764008700847626e-02</internalNodes>
          <leafValues>
            -5.7160860300064087e-01 3.5635659098625183e-01</leafValues></_></weakClassifiers></_>
    <!-- stage 4 -->
    <_>
      <maxWeakCount>7</maxWeakCount>
      <stageThreshold>-1.3148562908172607e+00</stageThreshold>
      <weakClassifiers>
        <_>
          <internalNodes>
            0 -1 9 -9.1085574240423739e-05</internalNodes>
          <leafValues>
            -7.9545456171035767e-01 -4.2857144027948380e-02</leafValues></_>
        <_>
          <internalNodes>
            0 -1 23 -2.6858280762098730e-04</internalNodes>
          <leafValues>
            -6.6470199823379517e-01 1.9757652282714844e-01</leafValues></_>
        <_>
          <internalNodes>
            0 -1 31 -2.1400680765509605e-02</internalNodes>
          <leafValues>
            -7.9478931427001953e-01 2.4509878456592560e-01</leafValues></_>
        <_>
          <internalNodes>
            0 -1 51 -1.5542458277195692e-03</internalNodes>
          <leafValues>
            1.7832216620445251e-01 -9.1571891307830811e-01</leafValues></_>
        <_>
          <internalNodes>
            0 -1 90 -1.9656337797641754e-02</internalNodes>
          <leafValues>
            4.2531931400299072e-01 -5.1628923416137695e-01</leafValues></_>
        <_>
          <internalNodes>
            0 -1 8 8.0455472925677896e-05</internalNodes>
          <leafValues>
            2.8641885519027710e-01 -7.7466601133346558e-01</leafValues></_>
        <_>
          <internalNodes>
            0 -1 32 -1.8747762078419328e-04</internalNodes>
          <leafValues>
            -7.8202301263809204e-01 2.4883566796779633e-01</leafValues></_></weakClassifiers></_>
    <!-- stage 5 -->
    <_>
      <maxWeakCount>6</maxWeakCount>
      <stageThreshold>-1.0996584892272949e+00</stageThreshold>
      <weakClassifiers>
        <_>
          <internalNodes>
            0 -1 16 4.3175507336854935e-02</internalNodes>
          <leafValues>
            -6.2105262279510498e-01 1.4619882404804230e-01</leafValues></_>
        <_>
          <internalNodes>
            0 -1 101 -2.6054434478282928e-02</internalNodes>
          <leafValues>
            4.2515835165977478e-01 -4.3223220109939575e-01</leafValues></_>
        <_>
          <internalNodes>
            0 -1 135 8.9667621068656445e-05</internalNodes>
          <leafValues>
            2.2953461110591888e-01 -8.0238169431686401e-01</leafValues></_>
        <_>
          <internalNodes>
            0 -1 135 -9.0017871116288006e-05</internalNodes>
          <leafValues>
            -7.0722699165344238e-01 2.9839044809341431e-01</leafValues></_>
        <_>
          <internalNodes>
            0 -1 59 -5.4513208568096161e-02</internalNodes>
          <leafValues>
            2.0423498749732971e-01 -8.0717688798904419e-01</leafValues></_>
        <_>
          <internalNodes>
            0 -1 67 -2.7267808036413044e-05</internalNodes>
          <leafValues>
            2.8993555903434753e-01 -6.0400789976119995e-01</leafValues></_></weakClassifiers></_>
    <!-- stage 6 -->
    <_>
      <maxWeakCount>8</maxWeakCount>
      <stageThreshold>-1.0304436683654785e+00</stageThreshold>
      <weakClassifiers>
        <_>
          <internalNodes>
            0 -1 36 2.0625937730073929e-02</internalNodes>
          <leafValues>
            -6.1311477422714233e-01 2.3178808391094208e-01</leafValues></_>
        <_>
          <internalNodes>
            0 -1 126 -8.4483595564961433e-03</internalNodes>
          <leafValues>
            -7.8633487224578857e-01 2.0310267806053162e-01</leafValues></_>
        <_>
          <internalNodes>
            0 -1 72 1.0982820531353354e-03</internalNodes>
          <leafValues>
            -3.6730802059173584e-01 4.7969847917556763e-01</leafValues></_>
        <_>
          <internalNodes>
            0 -1 10 -8.4042920207139105e-05</internalNodes>
          <leafValues>
            -7.3997193574905396e-01 2.7900284528732300e-01</leafValues></_>
        <_>
          <internalNodes>
            0 -1 26 -6.0964543372392654e-03</internalNodes>
          <leafValues>
            6.2272518873214722e-01 -2.9572802782058716e-01</leafValues></_>
        <_>
          <internalNodes>
            0 -1 69 2.4334272369742393e-02</internalNodes>
          <leafValues>
            2.6470205187797546e-01 -7.7836692333221436e-01</leafValues></_>
        <_>
          <internalNodes>
            0 -1 54 -2.5735518429428339e-03</internalNodes>
          <leafValues>
            4.6800509095191956e-01 -4.0704274177551270e-01</leafValues></_>
        <_>
          <internalNodes>
            0 -1 128 -3.5468098940327764e-04</internalNodes>
          <leafValues>
            -7.9503369331359863e-01 2.4147292971611023e-01</leafValues></_></weakClassifiers></_>
    <!-- stage 7 -->
    <_>
      <maxWeakCount>8</maxWeakCount>
      <stageThreshold>-1.3310320377349854e+00</stageThreshold>
      <weakClassifiers>
        <_>
          <internalNodes>
            0 -1 130 -1.1145461350679398e-02</internalNodes>
          <leafValues>
            -7.6237624883651733e-01 7.8740157186985016e-03</leafValues></_>
        <_>
          <internalNodes>
            0 -1 14 3.9686478674411774e-02</internalNodes>
          <leafValues>
            -4.0993618965148926e-01 4.2616614699363708e-01</leafValues></_>
        <_>
          <internalNodes>
            0 -1 63 -1.4151661656796932e-02</internalNodes>
          <leafValues>
            5.4214864969253540e-01 -3.2217633724212646e-01</leafValues></_>
        <_>
          <internalNodes>
            0 -1 43 6.8292260169982910e-02</internalNodes>
          <leafValues>
            -3.2678332924842834e-01 5.1719081401824951e-01</leafValues></_>
        <_>
          <internalNodes>
            0 -1 77 -6.5451338887214661e-02</internalNodes>
          <leafValues>
            -9.7366911172866821e-01 2.1860349178314209e-01</leafValues></_>
        <_>
          <internalNodes>
            0 -1 112 5.1911277696490288e-03</internalNodes>
          <leafValues>
            -3.6600273847579956e-01 4.7156703472137451e-01</leafValues></_>
        <_>
          <internalNodes>
            0 -1 52 -1.3479516201186925e-04</internalNodes>
          <leafValues>
            -7.8717833757400513e-01 2.7390021085739136e-01</leafValues></_>
        <_>
          <internalNodes>
            0 -1 88 -2.2690290585160255e-02</internalNodes>
          <leafValues>
            7.3082846403121948e-01 -2.7707716822624207e-01</leafValues></_></weakClassifiers></_>
    <!-- stage 8 -->
    <_>
      <maxWeakCount>6</maxWeakCount>
      <stageThreshold>-1.3155071735382080e+00</stageThreshold>
      <weakClassifiers>
        <_>
          <internalNodes>
            0 -1 46 -1.6729988157749176e-02</internalNodes>
          <leafValues>
            6.8627452850341797e-01 -4.6172839403152466e-01</leafValues></_>
        <_>
          <internalNodes>
            0 -1 35 -2.3574251681566238e-03</internalNodes>
          <leafValues>
            1.7234522104263306e-01 -9.4117844104766846e-01</leafValues></_>
        <_>
          <internalNodes>
            0 -1 127 1.7786647367756814e-04</internalNodes>
          <leafValues>
            1.8412607908248901e-01 -6.6742342710494995e-01</leafValues></_>
        <_>
          <internalNodes>
            0 -1 53 -1.2405477464199066e-02</internalNodes>
          <leafValues>
            -8.8714045286178589e-01 1.5192586183547974e-01</leafValues></_>
        <_>
          <internalNodes>
            0 -1 80 -5.7186409831047058e-02</internalNodes>
          <leafValues>
            1.9007673859596252e-01 -7.0336657762527466e-01</leafValues></_>
        <_>
          <internalNodes>
            0 -1 123 -4.5731432735919952e-02</internalNodes>
          <leafValues>
            -8.3813565969467163e-01 1.9274014234542847e-01</leafValues></_></weakClassifiers></_>
    <!-- stage 9 -->
    <_>
      <maxWeakCount>6</maxWeakCount>
      <stageThreshold>-7.1198081970214844e-01</stageThreshold>
      <weakClassifiers>
        <_>
          <internalNodes>
            0 -1 73 -1.2034995481371880e-02</internalNodes>
          <leafValues>
            4.0000000596046448e-01 -4.8936170339584351e-01</leafValues></_>
        <_>
          <internalNodes>
            0 -1 29 -1.3506250688806176e-03</internalNodes>
          <leafValues>
            -7.7715831995010376e-01 1.5959869325160980e-01</leafValues></_>
        <_>
          <internalNodes>
            0 -1 106 -1.7917942022904754e-04</internalNodes>
          <leafValues>
            -7.2695779800415039e-01 1.6738864779472351e-01</leafValues></_>
        <_>
          <internalNodes>
            0 -1 1 -6.3240304589271545e-03</internalNodes>
          <leafValues>
            -7.2467982769012451e-01 1.9637753069400787e-01</leafValues></_>
        <_>
          <internalNodes>
            0 -1 75 -3.3644378185272217e-02</internalNodes>
          <leafValues>
            -5.7437133789062500e-01 2.5874352455139160e-01</leafValues></_>
        <_>
          <internalNodes>
            0 -1 82 -1.3096933253109455e-03</internalNodes>
          <leafValues>
            1.3532997667789459e-01 -9.5733213424682617e-01</leafValues></_></weakClassifiers></_>
    <!-- stage 10 -->
    <_>
      <maxWeakCount>8</maxWeakCount>
      <stageThreshold>-8.3384013175964355e-01</stageThreshold>
      <weakClassifiers>
        <_>
          <internalNodes>
            0 -1 65 -1.6392278485000134e-03</internalNodes>
          <leafValues>
            5.2941179275512695e-01 -4.8453608155250549e-01</leafValues></_>
        <_>
          <internalNodes>
            0 -1 20 7.5965207070112228e-03</internalNodes>
          <leafValues>
            -4.2800012230873108e-01 3.9434057474136353e-01</leafValues></_>
        <_>
          <internalNodes>
            0 -1 92 -9.9767674691975117e-04</internalNodes>
          <leafValues>
            4.5412093400955200e-01 -3.8458850979804993e-01</leafValues></_>
        <_>
          <internalNodes>
            0 -1 114 1.6883612261153758e-04</internalNodes>
          <leafValues>
            2.2043147683143616e-01 -7.5803840160369873e-01</leafValues></_>
        <_>
          <internalNodes>
            0 -1 97 1.3319235295057297e-03</internalNodes>
          <leafValues>
            -3.0827865004539490e-01 4.8689836263656616e-01</leafValues></_>
        <_>
          <internalNodes>
            0 -1 87 -5.5902469903230667e-02</internalNodes>
          <leafValues>
            3.7858730554580688e-01 -3.9731591939926147e-01</leafValues></_>
        <_>
          <internalNodes>
            0 -1 21 8.4378626197576523e-03</internalNodes>
          <leafValues>
            -2.7989965677261353e-01 6.0373389720916748e-01</leafValues></_>
        <_>
          <internalNodes>
            0 -1 48 2.4707778356969357e-03</internalNodes>
          <leafValues>
            -2.0297247171401978e-01 7.3290538787841797e-01</leafValues></_></weakClassifiers></_>
    <!-- stage 11 -->
    <_>
      <maxWeakCount>8</maxWeakCount>
      <stageThreshold>-1.2251470088958740e+00</stageThreshold>
      <weakClassifiers>
        <_>
          <internalNodes>
            0 -1 115 3.4449342638254166e-04</internalNodes>
          <leafValues>
            -1.4369501173496246e-01 -8.9565217494964600e-01</leafValues></_>
        <_>
          <internalNodes>
            0 -1 27 -1.9027613103389740e-02</internalNodes>
          <leafValues>
            -9.0086030960083008e-01 1.0034645348787308e-01</leafValues></_>
        <_>
          <internalNodes>
            0 -1 38 8.5699459305033088e-05</internalNodes>
          <leafValues>
            1.3444483280181885e-01 -7.3399841785430908e-01</leafValues></_>
        <_>
          <internalNodes>
            0 -1 134 -5.4780254140496254e-04</internalNodes>
          <leafValues>
            -5.7138031721115112e-01 2.1528093516826630e-01</leafValues></_>
        <_>
          <internalNodes>
            0 -1 120 3.7313427310436964e-04</internalNodes>
          <leafValues>
            2.1506220102310181e-01 -6.9210636615753174e-01</leafValues></_>
        <_>
          <internalNodes>
            0 -1 42 7.6645463705062866e-03</internalNodes>
          <leafValues>
            1.4270783960819244e-01 -7.6519727706909180e-01</leafValues></_>
        <_>
          <internalNodes>
            0 -1 129 -1.5375642105937004e-03</internalNodes>
          <leafValues>
            1.6320057213306427e-01 -7.6041626930236816e-01</leafValues></_>
        <_>
          <internalNodes>
            0 -1 74 -7.7141309157013893e-03</internalNodes>
          <leafValues>
            5.0896042585372925e-01 -2.7688294649124146e-01</leafValues></_></weakClassifiers></_>
    <!-- stage 12 -->
    <_>
      <maxWeakCount>9</maxWeakCount>
      <stageThreshold>-1.1930763721466064e+00</stageThreshold>
      <weakClassifiers>
        <_>
          <internalNodes>
            0 -1 81 -2.6060547679662704e-03</internalNodes>
          <leafValues>
            4.2500001192092896e-01 -4.9468085169792175e-01</leafValues></_>
        <_>
          <internalNodes>
            0 -1 98 -3.3556213602423668e-03</internalNodes>
          <leafValues>
            1.7959961295127869e-01 -7.9729163646697998e-01</leafValues></_>
        <_>
          <internalNodes>
            0 -1 125 1.3321035658009350e-04</internalNodes>
          <leafValues>
            1.4657428860664368e-01 -8.0833911895751953e-01</leafValues></_>
        <_>
          <internalNodes>
            0 -1 91 7.4670049361884594e-03</internalNodes>
          <leafValues>
            -1.9266439974308014e-01 7.2000360488891602e-01</leafValues></_>
        <_>
          <internalNodes>
            0 -1 76 1.9920017570257187e-02</internalNodes>
          <leafValues>
            -2.1536841988563538e-01 5.8281779289245605e-01</leafValues></_>
        <_>
          <internalNodes>
            0 -1 18 -9.4921291747596115e-05</internalNodes>
          <leafValues>
            -6.3487452268600464e-01 2.1576666831970215e-01</leafValues></_>
        <_>
          <internalNodes>
            0 -1 58 8.6706886067986488e-03</internalNodes>
          <leafValues>
            -2.1822282671928406e-01 6.5896618366241455e-01</leafValues></_>
        <_>
          <internalNodes>
            0 -1 6 3.4142976999282837e-01</internalNodes>
          <leafValues>
            1.7200137674808502e-01 -8.5442829132080078e-01</leafValues></_>
        <_>
          <internalNodes>
            0 -1 100 1.7479329835623503e-04</internalNodes>
          <leafValues>
            1.9080941379070282e-01 -6.5928059816360474e-01</leafValues></_></weakClassifiers></_>
    <!-- stage 13 -->
    <_>
      <maxWeakCount>9</maxWeakCount>
      <stageThreshold>-8.6530184745788574e-01</stageThreshold>
      <weakClassifiers>
        <_>
          <internalNodes>
            0 -1 109 -6.2331594526767731e-03</internalNodes>
          <leafValues>
            -1.2875536456704140e-02 -6.6816145181655884e-01</leafValues></_>
        <_>
          <internalNodes>
            0 -1 79 9.4579256256110966e-05</internalNodes>
          <leafValues>
            1.5385615825653076e-01 -6.8091052770614624e-01</leafValues></_>
        <_>
          <internalNodes>
            0 -1 131 2.2355145483743399e-04</internalNodes>
          <leafValues>
            2.1653473377227783e-01 -5.8159661293029785e-01</leafValues></_>
        <_>
          <internalNodes>
            0 -1 49 6.1324783600866795e-03</internalNodes>
          <leafValues>
            -3.0181407928466797e-01 4.8622682690620422e-01</leafValues></_>
        <_>
          <internalNodes>
            0 -1 93 1.5280621300917119e-04</internalNodes>
          <leafValues>
            -1.8719673156738281e-01 5.9861856698989868e-01</leafValues></_>
        <_>
          <internalNodes>
            0 -1 71 1.2917644344270229e-03</internalNodes>
          <leafValues>
            -3.9107793569564819e-01 3.9288133382797241e-01</leafValues></_>
        <_>
          <internalNodes>
            0 -1 66 1.4957856386899948e-02</internalNodes>
          <leafValues>
            -2.0849354565143585e-01 6.5162807703018188e-01</leafValues></_>
        <_>
          <internalNodes>
            0 -1 103 7.3864990554284304e-05</internalNodes>
          <leafValues>
            2.1269272267818451e-01 -7.0757830142974854e-01</leafValues></_>
        <_>
          <internalNodes>
            0 -1 45 -8.7004490196704865e-03</internalNodes>
          <leafValues>
            4.4466999173164368e-01 -2.9325610399246216e-01</leafValues></_></weakClassifiers></_>
    <!-- stage 14 -->
    <_>
      <maxWeakCount>6</maxWeakCount>
      <stageThreshold>-1.0446876287460327e+00</stageThreshold>
      <weakClassifiers>
        <_>
          <internalNodes>
            0 -1 122 9.7904383437708020e-05</internalNodes>
          <leafValues>
            -3.4722223877906799e-02 -8.4523808956146240e-01</leafValues></_>
        <_>
          <internalNodes>
            0 -1 124 -8.0257974332198501e-05</internalNodes>
          <leafValues>
            -6.7404252290725708e-01 1.5569993853569031e-01</leafValues></_>
        <_>
          <internalNodes>
            0 -1 12 2.5544157251715660e-03</internalNodes>
          <leafValues>
            -3.5628744959831238e-01 3.5296866297721863e-01</leafValues></_>
        <_>
          <internalNodes>
            0 -1 5 2.8008369728922844e-02</internalNodes>
          <leafValues>
            -5.0145184993743896e-01 3.2563588023185730e-01</leafValues></_>
        <_>
          <internalNodes>
            0 -1 19 -1.2876713648438454e-02</internalNodes>
          <leafValues>
            1.3205911219120026e-01 -8.8436812162399292e-01</leafValues></_>
        <_>
          <internalNodes>
            0 -1 70 -3.0847089365124702e-03</internalNodes>
          <leafValues>
            -4.3733048439025879e-01 3.7275633215904236e-01</leafValues></_></weakClassifiers></_>
    <!-- stage 15 -->
    <_>
      <maxWeakCount>9</maxWeakCount>
      <stageThreshold>-1.2015475034713745e+00</stageThreshold>
      <weakClassifiers>
        <_>
          <internalNodes>
            0 -1 105 -3.1400753650814295e-03</internalNodes>
          <leafValues>
            -9.4202898442745209e-02 -6.9999998807907104e-01</leafValues></_>
        <_>
          <internalNodes>
            0 -1 4 -9.1373287141323090e-03</internalNodes>
          <leafValues>
            -7.8372800350189209e-01 9.3058302998542786e-02</leafValues></_>
        <_>
          <internalNodes>
            0 -1 3 3.6459096008911729e-04</internalNodes>
          <leafValues>
            -5.2831804752349854e-01 2.2216205298900604e-01</leafValues></_>
        <_>
          <internalNodes>
            0 -1 117 -1.5330238267779350e-02</internalNodes>
          <leafValues>
            -9.2468434572219849e-01 1.2554492056369781e-01</leafValues></_>
        <_>
          <internalNodes>
            0 -1 40 2.1203679498285055e-03</internalNodes>
          <leafValues>
            -3.2483556866645813e-01 4.5999267697334290e-01</leafValues></_>
        <_>
          <internalNodes>
            0 -1 33 2.8889440000057220e-04</internalNodes>
          <leafValues>
            -4.4880574941635132e-01 2.3715177178382874e-01</leafValues></_>
        <_>
          <internalNodes>
            0 -1 133 1.4686060603708029e-04</internalNodes>
          <leafValues>
            1.8027116358280182e-01 -6.6095495223999023e-01</leafValues></_>
        <_>
          <internalNodes>
            0 -1 74 -5.7897553779184818e-03</internalNodes>
          <leafValues>
            4.6625387668609619e-01 -2.7396649122238159e-01</leafValues></_>
        <_>
          <internalNodes>
            0 -1 24 -1.2838985770940781e-02</internalNodes>
          <leafValues>
            4.5803523063659668e-01 -3.1650149822235107e-01</leafValues></_></weakClassifiers></_>
    <!-- stage 16 -->
    <_>
      <maxWeakCount>10</maxWeakCount>
      <stageThreshold>-8.1328052282333374e-01</stageThreshold>
      <weakClassifiers>
        <_>
          <internalNodes>
            0 -1 96 -3.3107658382505178e-03</internalNodes>
          <leafValues>
            -1.2121212482452393e-01 -8.8888889551162720e-01</leafValues></_>
        <_>
          <internalNodes>
            0 -1 86 8.8519342243671417e-03</internalNodes>
          <leafValues>
            -2.8324204683303833e-01 5.7191795110702515e-01</leafValues></_>
        <_>
          <internalNodes>
            0 -1 132 -8.9526482042856514e-05</internalNodes>
          <leafValues>
            -6.6979521512985229e-01 1.9912700355052948e-01</leafValues></_>
        <_>
          <internalNodes>
            0 -1 84 -2.7041416615247726e-03</internalNodes>
          <leafValues>
            1.4510683715343475e-01 -7.8552991151809692e-01</leafValues></_>
        <_>
          <internalNodes>
            0 -1 108 -9.2220900114625692e-05</internalNodes>
          <leafValues>
            -8.2304644584655762e-01 1.5881811082363129e-01</leafValues></_>
        <_>
          <internalNodes>
            0 -1 104 -9.6781831234693527e-03</internalNodes>
          <leafValues>
            7.2837471961975098e-01 -2.0362852513790131e-01</leafValues></_>
        <_>
          <internalNodes>
            0 -1 0 -9.2262758698780090e-05</internalNodes>
          <leafValues>
            -8.3637136220932007e-01 1.8104512989521027e-01</leafValues></_>
        <_>
          <internalNodes>
            0 -1 55 -1.4235216658562422e-03</internalNodes>
          <leafValues>
            6.0132855176925659e-01 -2.7888235449790955e-01</leafValues></_>
        <_>
          <internalNodes>
            0 -1 83 3.5173338837921619e-03</internalNodes>
          <leafValues>
            -2.0676898956298828e-01 5.6711864471435547e-01</leafValues></_>
        <_>
          <internalNodes>
            0 -1 85 7.6780533418059349e-03</internalNodes>
          <leafValues>
            -1.9566662609577179e-01 6.3358426094055176e-01</leafValues></_></weakClassifiers></_>
    <!-- stage 17 -->
    <_>
      <maxWeakCount>8</maxWeakCount>
      <stageThreshold>-1.0449585914611816e+00</stageThreshold>
      <weakClassifiers>
        <_>
          <internalNodes>
            0 -1 118 7.5061012466903776e-05</internalNodes>
          <leafValues>
            -7.0707067847251892e-02 -8.2389938831329346e-01</leafValues></_>
        <_>
          <internalNodes>
            0 -1 110 1.7466990975663066e-03</internalNodes>
          <leafValues>
            -3.4703040122985840e-01 4.1581982374191284e-01</leafValues></_>
        <_>
          <internalNodes>
            0 -1 28 8.6714797362219542e-05</internalNodes>
          <leafValues>
            1.6951353847980499e-01 -7.5995188951492310e-01</leafValues></_>
        <_>
          <internalNodes>
            0 -1 37 6.2022532802075148e-04</internalNodes>
          <leafValues>
            -4.3602913618087769e-01 3.3618155121803284e-01</leafValues></_>
        <_>
          <internalNodes>
            0 -1 94 3.5911272279918194e-03</internalNodes>
          <leafValues>
            -2.7660435438156128e-01 5.4685860872268677e-01</leafValues></_>
        <_>
          <internalNodes>
            0 -1 68 -8.7824017100501806e-05</internalNodes>
          <leafValues>
            -5.5062854290008545e-01 2.6536002755165100e-01</leafValues></_>
        <_>
          <internalNodes>
            0 -1 121 -8.5343286627903581e-05</internalNodes>
          <leafValues>
            -7.8609853982925415e-01 1.3398729264736176e-01</leafValues></_>
        <_>
          <internalNodes>
            0 -1 57 -2.4903470650315285e-02</internalNodes>
          <leafValues>
            -3.2619372010231018e-01 4.2921641469001770e-01</leafValues></_></weakClassifiers></_>
    <!-- stage 18 -->
    <_>
      <maxWeakCount>10</maxWeakCount>
      <stageThreshold>-1.0373518466949463e+00</stageThreshold>
      <weakClassifiers>
        <_>
          <internalNodes>
            0 -1 34 -8.4748244262300432e-05</internalNodes>
          <leafValues>
            -8.4172660112380981e-01 -1.1041009426116943e-01</leafValues></_>
        <_>
          <internalNodes>
            0 -1 99 6.7746834247373044e-05</internalNodes>
          <leafValues>
            1.5842232108116150e-01 -5.8541291952133179e-01</leafValues></_>
        <_>
          <internalNodes>
            0 -1 119 -4.1376706212759018e-03</internalNodes>
          <leafValues>
            1.3994644582271576e-01 -8.5369354486465454e-01</leafValues></_>
        <_>
          <internalNodes>
            0 -1 22 4.8882327973842621e-03</internalNodes>
          <leafValues>
            -2.5368744134902954e-01 5.3614735603332520e-01</leafValues></_>
        <_>
          <internalNodes>
            0 -1 113 8.7768035882618278e-05</internalNodes>
          <leafValues>
            2.2447207570075989e-01 -5.8155483007431030e-01</leafValues></_>
        <_>
          <internalNodes>
            0 -1 25 -1.5261280350387096e-03</internalNodes>
          <leafValues>
            4.4460293650627136e-01 -2.5676459074020386e-01</leafValues></_>
        <_>
          <internalNodes>
            0 -1 62 -3.1962800770998001e-02</internalNodes>
          <leafValues>
            9.7226297855377197e-01 -1.2960024178028107e-01</leafValues></_>
        <_>
          <internalNodes>
            0 -1 41 3.5052846651524305e-03</internalNodes>
          <leafValues>
            1.5621557831764221e-01 -8.1101649999618530e-01</leafValues></_>
        <_>
          <internalNodes>
            0 -1 107 6.1411634087562561e-03</internalNodes>
          <leafValues>
            -1.3320901989936829e-01 8.8486057519912720e-01</leafValues></_>
        <_>
          <internalNodes>
            0 -1 39 -5.5163737852126360e-04</internalNodes>
          <leafValues>
            -7.2098612785339355e-01 1.7709515988826752e-01</leafValues></_></weakClassifiers></_>
    <!-- stage 19 -->
    <_>
      <maxWeakCount>6</maxWeakCount>
      <stageThreshold>-7.6919543743133545e-01</stageThreshold>
      <weakClassifiers>
        <_>
          <internalNodes>
            0 -1 7 1.7736253794282675e-03</internalNodes>
          <leafValues>
            -5.1951950788497925e-01 1.7073170840740204e-01</leafValues></_>
        <_>
          <internalNodes>
            0 -1 17 2.9513448476791382e-01</internalNodes>
          <leafValues>
            1.3367870450019836e-01 -7.4621140956878662e-01</leafValues></_>
        <_>
          <internalNodes>
            0 -1 111 -1.6485443338751793e-03</internalNodes>
          <leafValues>
            2.3784846067428589e-01 -4.7996553778648376e-01</leafValues></_>
        <_>
          <internalNodes>
            0 -1 61 2.1269551943987608e-03</internalNodes>
          <leafValues>
            -2.2526301443576813e-01 4.3626818060874939e-01</leafValues></_>
        <_>
          <internalNodes>
            0 -1 56 -5.6063802912831306e-03</internalNodes>
          <leafValues>
            4.7063729166984558e-01 -2.2394075989723206e-01</leafValues></_>
        <_>
          <internalNodes>
            0 -1 47 -1.2223853729665279e-02</internalNodes>
          <leafValues>
            1.4822971820831299e-01 -8.3353048563003540e-01</leafValues></_></weakClassifiers></_></stages>
  <features>
    <_>
      <rects>
        <_>
          0 0 2 2 -1.</_>
        <_>
          0 0 1 1 2.</_>
        <_>
          1 1 1 1 2.</_></rects>
      <tilted>0</tilted></_>
    <_>
      <rects>
        <_>
          0 0 1 24 -1.</_>
        <_>
          0 12 1 12 2.</_></rects>
      <tilted>0</tilted></_>
    <_>
      <rects>
        <_>
          0 0 4 6 -1.</_>
        <_>
          0 0 2 3 2.</_>
        <_>
          2 3 2 3 2.</_></rects>
      <tilted>0</tilted></_>
    <_>
      <rects>
        <_>
          0 0 8 6 -1.</_>
        <_>
          4 0 4 6 2.</_></rects>
      <tilted>0</tilted></_>
    <_>
      <rects>
        <_>
          0 0 24 1 -1.</_>
        <_>
          12 0 12 1 2.</_></rects>
      <tilted>0</tilted></_>
    <_>
      <rects>
        <_>
          0 0 21 20 -1.</_>
        <_>
          0 10 21 10 2.</_></rects>
      <tilted>0</tilted></_>
    <_>
      <rects>
        <_>
          0 0 24 24 -1.</_>
        <_>
          0 12 24 12 2.</_></rects>
      <tilted>0</tilted></_>
    <_>
      <rects>
        <_>
          0 1 18 2 -1.</_>
        <_>
          0 1 9 1 2.</_>
        <_>
          9 2 9 1 2.</_></rects>
      <tilted>0</tilted></_>
    <_>
      <rects>
        <_>
          0 2 1 2 -1.</_>
        <_>
          0 3 1 1 2.</_></rects>
      <tilted>0</tilted></_>
    <_>
      <rects>
        <_>
          0 2 1 4 -1.</_>
        <_>
          0 4 1 2 2.</_></rects>
      <tilted>0</tilted></_>
    <_>
      <rects>
        <_>
          0 2 3 2 -1.</_>
        <_>
          0 3 3 1 2.</_></rects>
      <tilted>0</tilted></_>
    <_>
      <rects>
        <_>
          0 2 12 20 -1.</_>
        <_>
          6 2 6 20 2.</_></rects>
      <tilted>0</tilted></_>
    <_>
      <rects>
        <_>
          0 2 18 2 -1.</_>
        <_>
          0 3 18 1 2.</_></rects>
      <tilted>0</tilted></_>
    <_>
      <rects>
        <_>
          0 4 4 13 -1.</_>
        <_>
          2 4 2 13 2.</_></rects>
      <tilted>0</tilted></_>
    <_>
      <rects>
        <_>
          0 4 6 13 -1.</_>
        <_>
          3 4 3 13 2.</_></rects>
      <tilted>0</tilted></_>
    <_>
      <rects>
        <_>
          0 4 6 16 -1.</_>
        <_>
          3 4 3 16 2.</_></rects>
      <tilted>0</tilted></_>
    <_>
      <rects>
        <_>
          0 4 6 17 -1.</_>
        <_>
          3 4 3 17 2.</_></rects>
      <tilted>0</tilted></_>
    <_>
      <rects>
        <_>
          0 4 16 19 -1.</_>
        <_>
          8 4 8 19 2.</_></rects>
      <tilted>0</tilted></_>
    <_>
      <rects>
        <_>
          0 6 2 2 -1.</_>
        <_>
          0 7 2 1 2.</_></rects>
      <tilted>0</tilted></_>
    <_>
      <rects>
        <_>
          0 6 2 18 -1.</_>
        <_>
          0 12 2 6 2.</_></rects>
      <tilted>0</tilted></_>
    <_>
      <rects>
        <_>
          0 6 4 11 -1.</_>
        <_>
          2 6 2 11 2.</_></rects>
      <tilted>0</tilted></_>
    <_>
      <rects>
        <_>
          0 10 8 10 -1.</_>
        <_>
          0 10 4 5 2.</_>
        <_>
          4 15 4 5 2.</_></rects>
      <tilted>0</tilted></_>
    <_>
      <rects>
        <_>
          0 11 22 2 -1.</_>
        <_>
          0 12 22 1 2.</_></rects>
      <tilted>0</tilted></_>
    <_>
      <rects>
        <_>
          0 12 2 10 -1.</_>
        <_>
          1 12 1 10 2.</_></rects>
      <tilted>0</tilted></_>
    <_>
      <rects>
        <_>
          0 18 14 6 -1.</_>
        <_>
          0 18 7 3 2.</_>
        <_>
          7 21 7 3 2.</_></rects>
      <tilted>0</tilted></_>
    <_>
      <rects>
        <_>
          0 19 8 4 -1.</_>
        <_>
          0 19 4 2 2.</_>
        <_>
          4 21 4 2 2.</_></rects>
      <tilted>0</tilted></_>
    <_>
      <rects>
        <_>
          0 19 10 4 -1.</_>
        <_>
          0 19 5 2 2.</_>
        <_>
          5 21 5 2 2.</_></rects>
      <tilted>0</tilted></_>
    <_>
      <rects>
        <_>
          0 22 6 2 -1.</_>
        <_>
          2 22 2 2 2.</_></rects>
      <tilted>0</tilted></_>
    <_>
      <rects>
        <_>
          0 23 2 1 -1.</_>
        <_>
          1 23 1 1 2.</_></rects>
      <tilted>0</tilted></_>
    <_>
      <rects>
        <_>
          0 23 12 1 -1.</_>
        <_>
          6 23 6 1 2.</_></rects>
      <tilted>0</tilted></_>
    <_>
      <rects>
        <_>
          1 0 1 12 -1.</_>
        <_>
          1 4 1 4 2.</_></rects>
      <tilted>0</tilted></_>
    <_>
      <rects>
        <_>
          1 0 5 3 -1.</_>
        <_>
          1 1 5 1 2.</_></rects>
      <tilted>0</tilted></_>
    <_>
      <rects>
        <_>
          1 1 6 2 -1.</_>
        <_>
          1 2 6 1 2.</_></rects>
      <tilted>0</tilted></_>
    <_>
      <rects>
        <_>
          1 1 18 2 -1.</_>
        <_>
          1 2 18 1 2.</_></rects>
      <tilted>0</tilted></_>
    <_>
      <rects>
        <_>
          1 3 2 2 -1.</_>
        <_>
          1 3 1 1 2.</_>
        <_>
          2 4 1 1 2.</_></rects>
      <tilted>0</tilted></_>
    <_>
      <rects>
        <_>
          1 4 2 3 -1.</_>
        <_>
          1 5 2 1 2.</_></rects>
      <tilted>0</tilted></_>
    <_>
      <rects>
        <_>
          1 4 4 14 -1.</_>
        <_>
          3 4 2 14 2.</_></rects>
      <tilted>0</tilted></_>
    <_>
      <rects>
        <_>
          1 7 2 15 -1.</_>
        <_>
          2 7 1 15 2.</_></rects>
      <tilted>0</tilted></_>
    <_>
      <rects>
        <_>
          1 21 2 2 -1.</_>
        <_>
          1 21 1 1 2.</_>
        <_>
          2 22 1 1 2.</_></rects>
      <tilted>0</tilted></_>
    <_>
      <rects>
        <_>
          1 22 6 2 -1.</_>
        <_>
          4 22 3 2 2.</_></rects>
      <tilted>0</tilted></_>
    <_>
      <rects>
        <_>
          2 0 2 16 -1.</_>
        <_>
          2 0 1 8 2.</_>
        <_>
          3 8 1 8 2.</_></rects>
      <tilted>0</tilted></_>
    <_>
      <rects>
        <_>
          2 0 2 4 -1.</_>
        <_>
          2 2 2 2 2.</_></rects>
      <tilted>0</tilted></_>
    <_>
      <rects>
        <_>
          2 0 16 1 -1.</_>
        <_>
          10 0 8 1 2.</_></rects>
      <tilted>0</tilted></_>
    <_>
      <rects>
        <_>
          2 0 20 8 -1.</_>
        <_>
          2 4 20 4 2.</_></rects>
      <tilted>0</tilted></_>
    <_>
      <rects>
        <_>
          2 23 3 1 -1.</_>
        <_>
          3 23 1 1 2.</_></rects>
      <tilted>0</tilted></_>
    <_>
      <rects>
        <_>
          3 1 4 16 -1.</_>
        <_>
          3 1 2 8 2.</_>
        <_>
          5 9 2 8 2.</_></rects>
      <tilted>0</tilted></_>
    <_>
      <rects>
        <_>
          3 3 4 10 -1.</_>
        <_>
          3 3 2 5 2.</_>
        <_>
          5 8 2 5 2.</_></rects>
      <tilted>0</tilted></_>
    <_>
      <rects>
        <_>
          3 3 7 3 -1.</_>
        <_>
          3 4 7 1 2.</_></rects>
      <tilted>0</tilted></_>
    <_>
      <rects>
        <_>
          3 4 10 2 -1.</_>
        <_>
          3 4 5 1 2.</_>
        <_>
          8 5 5 1 2.</_></rects>
      <tilted>0</tilted></_>
    <_>
      <rects>
        <_>
          3 5 2 18 -1.</_>
        <_>
          4 5 1 18 2.</_></rects>
      <tilted>0</tilted></_>
    <_>
      <rects>
        <_>
          3 13 17 6 -1.</_>
        <_>
          3 15 17 2 2.</_></rects>
      <tilted>0</tilted></_>
    <_>
      <rects>
        <_>
          3 21 3 1 -1.</_>
        <_>
          4 21 1 1 2.</_></rects>
      <tilted>0</tilted></_>
    <_>
      <rects>
        <_>
          4 0 2 3 -1.</_>
        <_>
          5 0 1 3 2.</_></rects>
      <tilted>0</tilted></_>
    <_>
      <rects>
        <_>
          4 0 20 1 -1.</_>
        <_>
          14 0 10 1 2.</_></rects>
      <tilted>0</tilted></_>
    <_>
      <rects>
        <_>
          4 0 20 4 -1.</_>
        <_>
          4 0 10 2 2.</_>
        <_>
          14 2 10 2 2.</_></rects>
      <tilted>0</tilted></_>
    <_>
      <rects>
        <_>
          4 3 8 2 -1.</_>
        <_>
          4 3 4 1 2.</_>
        <_>
          8 4 4 1 2.</_></rects>
      <tilted>0</tilted></_>
    <_>
      <rects>
        <_>
          4 19 12 4 -1.</_>
        <_>
          4 19 6 2 2.</_>
        <_>
          10 21 6 2 2.</_></rects>
      <tilted>0</tilted></_>
    <_>
      <rects>
        <_>
          4 22 15 2 -1.</_>
        <_>
          9 22 5 2 2.</_></rects>
      <tilted>0</tilted></_>
    <_>
      <rects>
        <_>
          5 3 4 8 -1.</_>
        <_>
          5 3 2 4 2.</_>
        <_>
          7 7 2 4 2.</_></rects>
      <tilted>0</tilted></_>
    <_>
      <rects>
        <_>
          5 8 18 3 -1.</_>
        <_>
          5 9 18 1 2.</_></rects>
      <tilted>0</tilted></_>
    <_>
      <rects>
        <_>
          6 0 18 10 -1.</_>
        <_>
          6 5 18 5 2.</_></rects>
      <tilted>0</tilted></_>
    <_>
      <rects>
        <_>
          6 19 8 4 -1.</_>
        <_>
          6 19 4 2 2.</_>
        <_>
          10 21 4 2 2.</_></rects>
      <tilted>0</tilted></_>
    <_>
      <rects>
        <_>
          6 20 14 4 -1.</_>
        <_>
          6 20 7 2 2.</_>
        <_>
          13 22 7 2 2.</_></rects>
      <tilted>0</tilted></_>
    <_>
      <rects>
        <_>
          6 20 13 4 -1.</_>
        <_>
          6 22 13 2 2.</_></rects>
      <tilted>0</tilted></_>
    <_>
      <rects>
        <_>
          7 0 17 6 -1.</_>
        <_>
          7 3 17 3 2.</_></rects>
      <tilted>0</tilted></_>
    <_>
      <rects>
        <_>
          7 3 8 2 -1.</_>
        <_>
          7 3 4 1 2.</_>
        <_>
          11 4 4 1 2.</_></rects>
      <tilted>0</tilted></_>
    <_>
      <rects>
        <_>
          7 12 10 6 -1.</_>
        <_>
          7 12 5 3 2.</_>
        <_>
          12 15 5 3 2.</_></rects>
      <tilted>0</tilted></_>
    <_>
      <rects>
        <_>
          7 22 11 2 -1.</_>
        <_>
          7 23 11 1 2.</_></rects>
      <tilted>0</tilted></_>
    <_>
      <rects>
        <_>
          8 0 2 2 -1.</_>
        <_>
          9 0 1 2 2.</_></rects>
      <tilted>0</tilted></_>
    <_>
      <rects>
        <_>
          8 10 16 14 -1.</_>
        <_>
          8 17 16 7 2.</_></rects>
      <tilted>0</tilted></_>
    <_>
      <rects>
        <_>
          8 23 3 1 -1.</_>
        <_>
          9 23 1 1 2.</_></rects>
      <tilted>0</tilted></_>
    <_>
      <rects>
        <_>
          9 5 4 6 -1.</_>
        <_>
          11 5 2 6 2.</_></rects>
      <tilted>0</tilted></_>
    <_>
      <rects>
        <_>
          9 19 8 1 -1.</_>
        <_>
          13 19 4 1 2.</_></rects>
      <tilted>0</tilted></_>
    <_>
      <rects>
        <_>
          9 19 12 4 -1.</_>
        <_>
          9 19 6 2 2.</_>
        <_>
          15 21 6 2 2.</_></rects>
      <tilted>0</tilted></_>
    <_>
      <rects>
        <_>
          9 19 14 4 -1.</_>
        <_>
          9 19 7 2 2.</_>
        <_>
          16 21 7 2 2.</_></rects>
      <tilted>0</tilted></_>
    <_>
      <rects>
        <_>
          9 21 8 3 -1.</_>
        <_>
          9 22 8 1 2.</_></rects>
      <tilted>0</tilted></_>
    <_>
      <rects>
        <_>
          10 1 14 4 -1.</_>
        <_>
          10 3 14 2 2.</_></rects>
      <tilted>0</tilted></_>
    <_>
      <rects>
        <_>
          10 2 11 3 -1.</_>
        <_>
          10 3 11 1 2.</_></rects>
      <tilted>0</tilted></_>
    <_>
      <rects>
        <_>
          10 5 14 13 -1.</_>
        <_>
          17 5 7 13 2.</_></rects>
      <tilted>0</tilted></_>
    <_>
      <rects>
        <_>
          10 22 6 2 -1.</_>
        <_>
          10 23 6 1 2.</_></rects>
      <tilted>0</tilted></_>
    <_>
      <rects>
        <_>
          11 3 3 17 -1.</_>
        <_>
          12 3 1 17 2.</_></rects>
      <tilted>0</tilted></_>
    <_>
      <rects>
        <_>
          11 8 4 4 -1.</_>
        <_>
          11 8 2 2 2.</_>
        <_>
          13 10 2 2 2.</_></rects>
      <tilted>0</tilted></_>
    <_>
      <rects>
        <_>
          11 23 3 1 -1.</_>
        <_>
          12 23 1 1 2.</_></rects>
      <tilted>0</tilted></_>
    <_>
      <rects>
        <_>
          12 6 1 6 -1.</_>
        <_>
          12 9 1 3 2.</_></rects>
      <tilted>0</tilted></_>
    <_>
      <rects>
        <_>
          13 2 6 1 -1.</_>
        <_>
          15 2 2 1 2.</_></rects>
      <tilted>0</tilted></_>
    <_>
      <rects>
        <_>
          13 3 10 8 -1.</_>
        <_>
          13 3 5 4 2.</_>
        <_>
          18 7 5 4 2.</_></rects>
      <tilted>0</tilted></_>
    <_>
      <rects>
        <_>
          13 8 6 6 -1.</_>
        <_>
          13 8 3 3 2.</_>
        <_>
          16 11 3 3 2.</_></rects>
      <tilted>0</tilted></_>
    <_>
      <rects>
        <_>
          14 2 10 15 -1.</_>
        <_>
          19 2 5 15 2.</_></rects>
      <tilted>0</tilted></_>
    <_>
      <rects>
        <_>
          14 4 6 12 -1.</_>
        <_>
          14 4 3 6 2.</_>
        <_>
          17 10 3 6 2.</_></rects>
      <tilted>0</tilted></_>
    <_>
      <rects>
        <_>
          14 6 10 17 -1.</_>
        <_>
          19 6 5 17 2.</_></rects>
      <tilted>0</tilted></_>
    <_>
      <rects>
        <_>
          14 14 10 10 -1.</_>
        <_>
          14 19 10 5 2.</_></rects>
      <tilted>0</tilted></_>
    <_>
      <rects>
        <_>
          14 20 8 4 -1.</_>
        <_>
          14 20 4 2 2.</_>
        <_>
          18 22 4 2 2.</_></rects>
      <tilted>0</tilted></_>
    <_>
      <rects>
        <_>
          14 20 7 2 -1.</_>
        <_>
          14 21 7 1 2.</_></rects>
      <tilted>0</tilted></_>
    <_>
      <rects>
        <_>
          15 6 6 1 -1.</_>
        <_>
          18 6 3 1 2.</_></rects>
      <tilted>0</tilted></_>
    <_>
      <rects>
        <_>
          15 13 4 6 -1.</_>
        <_>
          15 13 2 3 2.</_>
        <_>
          17 16 2 3 2.</_></rects>
      <tilted>0</tilted></_>
    <_>
      <rects>
        <_>
          16 20 6 4 -1.</_>
        <_>
          16 22 6 2 2.</_></rects>
      <tilted>0</tilted></_>
    <_>
      <rects>
        <_>
          16 22 3 2 -1.</_>
        <_>
          17 22 1 2 2.</_></rects>
      <tilted>0</tilted></_>
    <_>
      <rects>
        <_>
          17 8 6 6 -1.</_>
        <_>
          17 8 3 3 2.</_>
        <_>
          20 11 3 3 2.</_></rects>
      <tilted>0</tilted></_>
    <_>
      <rects>
        <_>
          17 22 3 2 -1.</_>
        <_>
          18 22 1 2 2.</_></rects>
      <tilted>0</tilted></_>
    <_>
      <rects>
        <_>
          18 0 4 2 -1.</_>
        <_>
          18 0 2 1 2.</_>
        <_>
          20 1 2 1 2.</_></rects>
      <tilted>0</tilted></_>
    <_>
      <rects>
        <_>
          18 0 6 4 -1.</_>
        <_>
          18 0 3 2 2.</_>
        <_>
          21 2 3 2 2.</_></rects>
      <tilted>0</tilted></_>
    <_>
      <rects>
        <_>
          18 9 6 11 -1.</_>
        <_>
          21 9 3 11 2.</_></rects>
      <tilted>0</tilted></_>
    <_>
      <rects>
        <_>
          18 9 6 13 -1.</_>
        <_>
          21 9 3 13 2.</_></rects>
      <tilted>0</tilted></_>
    <_>
      <rects>
        <_>
          18 23 2 1 -1.</_>
        <_>
          19 23 1 1 2.</_></rects>
      <tilted>0</tilted></_>
    <_>
      <rects>
        <_>
          19 12 4 8 -1.</_>
        <_>
          19 12 2 4 2.</_>
        <_>
          21 16 2 4 2.</_></rects>
      <tilted>0</tilted></_>
    <_>
      <rects>
        <_>
          20 1 4 23 -1.</_>
        <_>
          22 1 2 23 2.</_></rects>
      <tilted>0</tilted></_>
    <_>
      <rects>
        <_>
          20 1 4 2 -1.</_>
        <_>
          20 2 4 1 2.</_></rects>
      <tilted>0</tilted></_>
    <_>
      <rects>
        <_>
          20 3 2 12 -1.</_>
        <_>
          20 3 1 6 2.</_>
        <_>
          21 9 1 6 2.</_></rects>
      <tilted>0</tilted></_>
    <_>
      <rects>
        <_>
          20 3 2 2 -1.</_>
        <_>
          20 4 2 1 2.</_></rects>
      <tilted>0</tilted></_>
    <_>
      <rects>
        <_>
          20 4 4 17 -1.</_>
        <_>
          22 4 2 17 2.</_></rects>
      <tilted>0</tilted></_>
    <_>
      <rects>
        <_>
          20 8 3 6 -1.</_>
        <_>
          20 11 3 3 2.</_></rects>
      <tilted>0</tilted></_>
    <_>
      <rects>
        <_>
          20 11 4 11 -1.</_>
        <_>
          22 11 2 11 2.</_></rects>
      <tilted>0</tilted></_>
    <_>
      <rects>
        <_>
          20 12 4 12 -1.</_>
        <_>
          20 12 2 6 2.</_>
        <_>
          22 18 2 6 2.</_></rects>
      <tilted>0</tilted></_>
    <_>
      <rects>
        <_>
          20 19 3 2 -1.</_>
        <_>
          20 20 3 1 2.</_></rects>
      <tilted>0</tilted></_>
    <_>
      <rects>
        <_>
          20 21 4 2 -1.</_>
        <_>
          20 22 4 1 2.</_></rects>
      <tilted>0</tilted></_>
    <_>
      <rects>
        <_>
          20 22 4 2 -1.</_>
        <_>
          22 22 2 2 2.</_></rects>
      <tilted>0</tilted></_>
    <_>
      <rects>
        <_>
          21 0 3 3 -1.</_>
        <_>
          22 0 1 3 2.</_></rects>
      <tilted>0</tilted></_>
    <_>
      <rects>
        <_>
          21 3 3 3 -1.</_>
        <_>
          21 4 3 1 2.</_></rects>
      <tilted>0</tilted></_>
    <_>
      <rects>
        <_>
          21 4 2 2 -1.</_>
        <_>
          21 4 1 1 2.</_>
        <_>
          22 5 1 1 2.</_></rects>
      <tilted>0</tilted></_>
    <_>
      <rects>
        <_>
          21 12 3 3 -1.</_>
        <_>
          21 13 3 1 2.</_></rects>
      <tilted>0</tilted></_>
    <_>
      <rects>
        <_>
          21 18 3 4 -1.</_>
        <_>
          21 20 3 2 2.</_></rects>
      <tilted>0</tilted></_>
    <_>
      <rects>
        <_>
          22 0 2 2 -1.</_>
        <_>
          22 1 2 1 2.</_></rects>
      <tilted>0</tilted></_>
    <_>
      <rects>
        <_>
          22 4 2 2 -1.</_>
        <_>
          22 4 1 1 2.</_>
        <_>
          23 5 1 1 2.</_></rects>
      <tilted>0</tilted></_>
    <_>
      <rects>
        <_>
          22 5 2 15 -1.</_>
        <_>
          22 10 2 5 2.</_></rects>
      <tilted>0</tilted></_>
    <_>
      <rects>
        <_>
          22 20 2 1 -1.</_>
        <_>
          23 20 1 1 2.</_></rects>
      <tilted>0</tilted></_>
    <_>
      <rects>
        <_>
          22 20 2 2 -1.</_>
        <_>
          23 20 1 2 2.</_></rects>
      <tilted>0</tilted></_>
    <_>
      <rects>
        <_>
          22 21 2 3 -1.</_>
        <_>
          22 22 2 1 2.</_></rects>
      <tilted>0</tilted></_>
    <_>
      <rects>
        <_>
          23 0 1 4 -1.</_>
        <_>
          23 2 1 2 2.</_></rects>
      <tilted>0</tilted></_>
    <_>
      <rects>
        <_>
          23 0 1 8 -1.</_>
        <_>
          23 4 1 4 2.</_></rects>
      <tilted>0</tilted></_>
    <_>
      <rects>
        <_>
          23 6 1 3 -1.</_>
        <_>
          23 7 1 1 2.</_></rects>
      <tilted>0</tilted></_>
    <_>
      <rects>
        <_>
          23 6 1 9 -1.</_>
        <_>
          23 9 1 3 2.</_></rects>
      <tilted>0</tilted></_>
    <_>
      <rects>
        <_>
          23 10 1 4 -1.</_>
        <_>
          23 12 1 2 2.</_></rects>
      <tilted>0</tilted></_>
    <_>
      <rects>
        <_>
          23 15 1 2 -1.</_>
        <_>
          23 16 1 1 2.</_></rects>
      <tilted>0</tilted></_>
    <_>
      <rects>
        <_>
          23 15 1 4 -1.</_>
        <_>
          23 17 1 2 2.</_></rects>
      <tilted>0</tilted></_>
    <_>
      <rects>
        <_>
          23 15 1 8 -1.</_>
        <_>
          23 19 1 4 2.</_></rects>
      <tilted>0</tilted></_>
    <_>
      <rects>
        <_>
          23 18 1 2 -1.</_>
        <_>
          23 19 1 1 2.</_></rects>
      <tilted>0</tilted></_>
    <_>
      <rects>
        <_>
          23 22 1 2 -1.</_>
        <_>
          23 23 1 1 2.</_></rects>
      <tilted>0</tilted></_></features></cascade>
</opencv_storage>
